{
  "architecture": [
    20,
    64,
    64,
    32
  ],
  "layers": [
    {
      "W": [
        [
          0.09192253649234772,
          -0.10201160609722137,
          0.19972790777683258,
          -0.10833173245191574,
          0.18132923543453217,
          0.058229751884937286,
          0.18559296429157257,
          -0.016733288764953613,
          0.18706035614013672,
          -0.21661293506622314,
          0.15001487731933594,
          0.14738216996192932,
          0.009563720785081387,
          0.0003426872717682272,
          0.10981106758117676,
          -0.0983102023601532,
          0.12096360325813293,
          0.007080805953592062,
          0.001667241333052516,
          0.06229790300130844
        ],
        [
          -0.033523160964250565,
          0.26466792821884155,
          0.2318546324968338,
          -0.06789132207632065,
          -0.2217007279396057,
          0.06617939472198486,
          -0.11506333202123642,
          0.24674929678440094,
          -0.03556134179234505,
          0.14170114696025848,
          -0.008388843387365341,
          -0.02022145502269268,
          0.21243584156036377,
          0.033850714564323425,
          -0.2220970094203949,
          -0.11063798516988754,
          0.18124128878116608,
          0.17095348238945007,
          -0.17679880559444427,
          -0.1070658415555954
        ],
        [
          -0.20966453850269318,
          -0.04116292670369148,
          0.2123238444328308,
          -0.11636573076248169,
          -0.0687984898686409,
          0.09500391036272049,
          -0.035765767097473145,
          0.06852440536022186,
          0.21867765486240387,
          0.030543027445673943,
          -0.10856088250875473,
          -0.26369190216064453,
          0.28265753388404846,
          -0.11655203253030777,
          0.09579320251941681,
          0.18184757232666016,
          0.23087607324123383,
          0.012767676264047623,
          0.14468738436698914,
          0.12938842177391052
        ],
        [
          0.1279393434524536,
          0.02837863378226757,
          0.21012389659881592,
          -0.039392437785863876,
          -0.197071835398674,
          -0.08405949920415878,
          0.1827269345521927,
          -0.15262258052825928,
          0.22373168170452118,
          -0.045034877955913544,
          -0.21010573208332062,
          0.16810858249664307,
          -0.18850435316562653,
          -0.23674963414669037,
          0.15811768174171448,
          -0.1784929633140564,
          -0.10684163868427277,
          0.12156098335981369,
          -0.1880977600812912,
          -0.06919048726558685
        ],
        [
          0.0386030450463295,
          -0.05849261209368706,
          0.009405295364558697,
          -0.11858686059713364,
          0.13969257473945618,
          0.119932621717453,
          0.2361372709274292,
          0.22175829112529755,
          -0.18304939568042755,
          -0.0522020198404789,
          0.20221155881881714,
          -0.021150769665837288,
          0.22624988853931427,
          -0.015473769046366215,
          0.08526509255170822,
          -0.17633946239948273,
          0.13895149528980255,
          -0.18920914828777313,
          0.12329782545566559,
          -0.020549682900309563
        ],
        [
          0.2565716505050659,
          -0.22426378726959229,
          -0.09341598302125931,
          0.17232519388198853,
          0.18654468655586243,
          -0.2181120365858078,
          -0.09985499829053879,
          -0.09544850885868073,
          0.11807990074157715,
          0.10916977375745773,
          0.15678438544273376,
          0.037848591804504395,
          -0.007436866406351328,
          -0.20304815471172333,
          0.12580320239067078,
          0.24168574810028076,
          0.2515931725502014,
          0.2309672236442566,
          0.07402811199426651,
          -0.20821954309940338
        ],
        [
          -0.018478861078619957,
          0.09102534502744675,
          0.04224976524710655,
          -0.1214187890291214,
          0.006391965784132481,
          -0.13649973273277283,
          -0.13653263449668884,
          0.023038184270262718,
          0.052172813564538956,
          -0.012378430925309658,
          -0.09790273010730743,
          -0.15808160603046417,
          0.15549324452877045,
          0.02773374319076538,
          -0.18114492297172546,
          0.0016557949129492044,
          -0.07180077582597733,
          0.06304237246513367,
          0.18711134791374207,
          0.13323967158794403
        ],
        [
          0.11669788509607315,
          0.16041341423988342,
          0.21283864974975586,
          -0.10735498368740082,
          -0.07025139778852463,
          0.1914414018392563,
          -0.17854337394237518,
          0.060033682733774185,
          0.005030580330640078,
          0.0658823549747467,
          -0.059146635234355927,
          0.20339712500572205,
          0.12845227122306824,
          0.0701826736330986,
          -0.1970750391483307,
          -0.1676984578371048,
          0.08590502291917801,
          0.12670168280601501,
          -0.10116460919380188,
          -0.14045874774456024
        ],
        [
          -0.047402508556842804,
          0.10315234214067459,
          0.08154527842998505,
          0.008913559839129448,
          0.19489018619060516,
          -0.05915918946266174,
          0.15976129472255707,
          -0.050542619079351425,
          2.819056680891663e-05,
          0.056580234318971634,
          -0.08496130257844925,
          0.02065092697739601,
          -0.026869036257267,
          -0.030674684792757034,
          -0.27981436252593994,
          0.170833021402359,
          0.06564662605524063,
          0.008874044753611088,
          0.20048221945762634,
          -0.08448506891727448
        ],
        [
          0.2022472620010376,
          -0.11977885663509369,
          0.03985430672764778,
          0.22380319237709045,
          0.025164026767015457,
          -0.1921159327030182,
          0.2526354193687439,
          0.06747329980134964,
          -0.15990981459617615,
          0.09490396082401276,
          -0.20672984421253204,
          0.11720355600118637,
          -0.18883748352527618,
          0.004545748699456453,
          0.026764877140522003,
          0.11648840457201004,
          0.05447777733206749,
          -0.1031133234500885,
          -0.08566312491893768,
          -0.028597863391041756
        ],
        [
          -0.19034112989902496,
          -0.06664550304412842,
          0.2641758918762207,
          -0.02905784547328949,
          -0.16009274125099182,
          -0.09079689532518387,
          0.1643335074186325,
          0.24695676565170288,
          0.09616775065660477,
          -0.015039109624922276,
          0.20356068015098572,
          -0.12147241085767746,
          0.027545303106307983,
          -0.19317980110645294,
          0.05646162107586861,
          0.02213052287697792,
          0.2111114114522934,
          0.021406330168247223,
          -0.17431297898292542,
          0.11452824622392654
        ],
        [
          -0.11127086728811264,
          -0.024813657626509666,
          -0.18455897271633148,
          0.030131550505757332,
          -0.09168338030576706,
          -0.16928352415561676,
          -0.14065606892108917,
          0.18928267061710358,
          0.0053230514749884605,
          -0.2069278061389923,
          -0.0020927044097334146,
          0.1944197118282318,
          0.1512584537267685,
          -0.13643746078014374,
          0.10001344233751297,
          -0.15726551413536072,
          -0.22704868018627167,
          -0.20704592764377594,
          0.034229326993227005,
          -0.14749395847320557
        ],
        [
          -0.014649844728410244,
          -0.0848897323012352,
          -0.02222280763089657,
          -0.17588654160499573,
          0.17471419274806976,
          -0.20988045632839203,
          -0.10953962057828903,
          0.12692636251449585,
          0.2825878858566284,
          -0.1320977658033371,
          -0.020438101142644882,
          -0.20416259765625,
          0.058235254138708115,
          -0.015454900451004505,
          0.17265143990516663,
          0.20524726808071136,
          0.1682029813528061,
          0.03821948915719986,
          0.17977845668792725,
          0.2798859179019928
        ],
        [
          -0.11939861625432968,
          -0.14262478053569794,
          0.1909675896167755,
          0.0033626339863985777,
          -0.18093107640743256,
          0.07459341734647751,
          0.18879666924476624,
          -0.16175968945026398,
          0.09046617150306702,
          -0.07603873312473297,
          -0.23237811028957367,
          -0.18213064968585968,
          -0.2246921807527542,
          -0.10659713298082352,
          0.07938915491104126,
          -0.042525533586740494,
          -0.1921868771314621,
          -0.19806526601314545,
          -0.14232610166072845,
          0.13882166147232056
        ],
        [
          -0.053980130702257156,
          0.11362585425376892,
          0.14178813993930817,
          0.13492344319820404,
          -0.16291426122188568,
          0.009791810996830463,
          0.13724306225776672,
          0.19465677440166473,
          -0.0007469167467206717,
          0.06119096279144287,
          -0.04904330521821976,
          -0.18151021003723145,
          0.12462514638900757,
          0.13157665729522705,
          -0.04051441699266434,
          0.06420192867517471,
          -0.16136251389980316,
          -0.13552172482013702,
          -0.01081718597561121,
          -0.15218289196491241
        ],
        [
          -0.009155071340501308,
          0.13748574256896973,
          -0.06817831844091415,
          0.08440207690000534,
          0.06735586374998093,
          0.11887671053409576,
          0.07270889729261398,
          -0.06119689345359802,
          -0.18440575897693634,
          0.14964886009693146,
          0.011892384849488735,
          0.01655118353664875,
          -0.17610567808151245,
          0.21227870881557465,
          -0.13428324460983276,
          0.24063409864902496,
          -0.10718097537755966,
          0.11276548355817795,
          -0.14815601706504822,
          -0.2616528272628784
        ],
        [
          -0.16569331288337708,
          -0.14197564125061035,
          0.148039773106575,
          0.17577923834323883,
          0.06514441221952438,
          0.02470981888473034,
          0.1486857384443283,
          0.08989280462265015,
          -0.15042853355407715,
          0.24397732317447662,
          -0.19165456295013428,
          0.025296824052929878,
          0.0053041791543364525,
          0.1022806465625763,
          0.17409278452396393,
          0.16885775327682495,
          -0.08132973313331604,
          0.012498825788497925,
          -0.10361716151237488,
          0.22336378693580627
        ],
        [
          -0.06485544890165329,
          0.04307517409324646,
          -0.016136933118104935,
          0.11228179931640625,
          0.04341717064380646,
          0.2605421245098114,
          0.0659017562866211,
          0.08645355701446533,
          0.0475173257291317,
          -0.10173621028661728,
          -0.04441835358738899,
          -0.01398560032248497,
          -0.16423217952251434,
          0.22712701559066772,
          0.009520295076072216,
          -0.17833273112773895,
          -0.07696351408958435,
          -0.15342283248901367,
          -0.082496277987957,
          0.186139777302742
        ],
        [
          0.0633690357208252,
          -0.015086309984326363,
          0.03065303899347782,
          -0.17821940779685974,
          -0.11305166035890579,
          -0.20069251954555511,
          0.21746930480003357,
          0.08525027334690094,
          -0.01765918731689453,
          -0.01311163604259491,
          0.1684870570898056,
          -0.06756333261728287,
          0.10887404531240463,
          -0.16438543796539307,
          -0.17739617824554443,
          0.1671949177980423,
          -0.03531309589743614,
          0.04479076340794563,
          0.15514050424098969,
          -0.10071540623903275
        ],
        [
          0.009836701676249504,
          0.013683966360986233,
          -0.03964272886514664,
          0.03055036999285221,
          0.19964618980884552,
          0.07761162519454956,
          0.1740604192018509,
          0.04874243587255478,
          -0.09294579178094864,
          0.2507852613925934,
          0.010080758482217789,
          0.12786206603050232,
          0.14055873453617096,
          0.03613023832440376,
          0.2126253843307495,
          -0.09934190660715103,
          0.053718581795692444,
          -0.11800402402877808,
          -0.1697935312986374,
          -0.18458203971385956
        ],
        [
          -0.237260103225708,
          -0.015602115541696548,
          -0.18419654667377472,
          -0.025255311280488968,
          0.1552080363035202,
          -0.1382187157869339,
          -0.06362773478031158,
          0.02749236486852169,
          0.16735467314720154,
          -0.06872308999300003,
          0.11826211959123611,
          0.21395397186279297,
          0.14427950978279114,
          -0.20202535390853882,
          -0.0017517064698040485,
          -0.20591716468334198,
          0.13376067578792572,
          0.07850981503725052,
          0.11188064515590668,
          0.018116315826773643
        ],
        [
          0.03694452345371246,
          -0.06078839674592018,
          0.0597088448703289,
          0.17270338535308838,
          -0.19420884549617767,
          0.20628149807453156,
          -0.10525739192962646,
          -0.02939683385193348,
          -0.034966789186000824,
          -0.09593433141708374,
          0.23042649030685425,
          -0.10311293601989746,
          -0.11538814008235931,
          0.13143156468868256,
          0.031077656894922256,
          0.15900221467018127,
          -0.12360011041164398,
          -0.09906579554080963,
          0.18068371713161469,
          -0.06438305228948593
        ],
        [
          -0.10172270983457565,
          0.0017310380935668945,
          -0.06294459104537964,
          -0.027849823236465454,
          0.1745913326740265,
          0.09918421506881714,
          -0.011943042278289795,
          -0.013096392154693604,
          -0.13443994522094727,
          -0.09952918440103531,
          -0.1054680347442627,
          -0.10870850086212158,
          0.04883989691734314,
          0.006514564156532288,
          -0.19241583347320557,
          -0.04055705666542053,
          -0.1585620939731598,
          0.11137306690216064,
          -0.044383689761161804,
          -0.1275760531425476
        ],
        [
          -0.08774706721305847,
          0.2114810198545456,
          0.010603653267025948,
          -0.09127341210842133,
          -0.21075469255447388,
          -0.033901337534189224,
          0.17795714735984802,
          -0.12785999476909637,
          0.04431828483939171,
          -0.15173028409481049,
          0.04899736866354942,
          -0.013158729299902916,
          -0.009961369447410107,
          0.19642828404903412,
          0.17231829464435577,
          0.16583305597305298,
          -0.026895636692643166,
          -0.008360094390809536,
          -0.12016303837299347,
          0.20816408097743988
        ],
        [
          -0.18433231115341187,
          -0.02928708679974079,
          -0.10359639674425125,
          0.1928633600473404,
          0.061054591089487076,
          0.1358041763305664,
          -0.032687194645404816,
          0.177589550614357,
          -0.1372365951538086,
          0.2555652856826782,
          0.20746131241321564,
          0.23608097434043884,
          -0.1258208453655243,
          -0.17044834792613983,
          0.16611063480377197,
          0.21620698273181915,
          0.10005820542573929,
          0.005421224050223827,
          0.10548293590545654,
          -0.054417166858911514
        ],
        [
          -0.10610751062631607,
          -0.10217151045799255,
          -0.014516448602080345,
          -0.08323024213314056,
          0.135048508644104,
          0.22378025949001312,
          -0.2084265500307083,
          0.1537054479122162,
          -0.07748569548130035,
          -0.1334591805934906,
          -0.011733236722648144,
          0.16934612393379211,
          -0.0671934261918068,
          0.2198653370141983,
          0.16827081143856049,
          0.03029690682888031,
          -0.20120126008987427,
          0.033228762447834015,
          0.20524369180202484,
          -0.03037230111658573
        ],
        [
          0.2769818603992462,
          0.08108605444431305,
          0.1943298876285553,
          -0.05863931030035019,
          0.17969727516174316,
          0.11553988605737686,
          -0.15024439990520477,
          -0.19168254733085632,
          0.08311575651168823,
          0.04766475409269333,
          0.0018021451542153955,
          -0.1624997854232788,
          0.006729832384735346,
          -0.1116126999258995,
          -0.16734836995601654,
          0.09787819534540176,
          -0.09889326989650726,
          -0.04026717320084572,
          0.08814386278390884,
          0.10401847213506699
        ],
        [
          -0.11622294038534164,
          -0.11889395117759705,
          -0.17709103226661682,
          0.09254711866378784,
          0.02529473602771759,
          -0.05016434192657471,
          -0.19933176040649414,
          0.1602015495300293,
          0.05935871601104736,
          0.012059837579727173,
          -0.09053553640842438,
          -0.06709606945514679,
          0.14460507035255432,
          -0.1328425109386444,
          -0.21907703578472137,
          0.12469020485877991,
          0.10273632407188416,
          -0.05113440752029419,
          -0.09441541135311127,
          -0.05931377410888672
        ],
        [
          -0.036813411861658096,
          0.042348384857177734,
          0.08020112663507462,
          -0.08245152980089188,
          0.06846305727958679,
          -0.1122898980975151,
          -0.18431398272514343,
          -0.16789564490318298,
          -0.17770124971866608,
          0.11999113112688065,
          -0.1896848976612091,
          -0.07557704299688339,
          -0.03182270750403404,
          -0.22067715227603912,
          -0.16237762570381165,
          0.1697717159986496,
          -0.0488290973007679,
          0.11505979299545288,
          -0.06923045963048935,
          -0.032307498157024384
        ],
        [
          0.1935657560825348,
          0.11360520124435425,
          0.25916072726249695,
          0.14283640682697296,
          -0.07153225690126419,
          -0.1449737548828125,
          0.023600038141012192,
          0.246224507689476,
          -0.03684936836361885,
          0.22981569170951843,
          -0.05596370995044708,
          0.05968613550066948,
          0.004536317195743322,
          0.06903894990682602,
          0.1447417289018631,
          0.14836813509464264,
          -0.013066711835563183,
          -0.12334910035133362,
          0.11394406855106354,
          -0.23970623314380646
        ],
        [
          0.1813613623380661,
          -0.014574809931218624,
          0.1437373012304306,
          -0.14053314924240112,
          -0.09965606778860092,
          -0.051676925271749496,
          0.2508353292942047,
          0.1675393283367157,
          0.15497280657291412,
          -0.05234790965914726,
          0.12421642988920212,
          0.28014999628067017,
          -0.11960617452859879,
          -0.19301211833953857,
          -0.10216882824897766,
          -0.0787896141409874,
          0.09718605875968933,
          0.03682279214262962,
          0.021650081500411034,
          -0.15615367889404297
        ],
        [
          0.234082892537117,
          0.08729662001132965,
          0.22052645683288574,
          0.18540604412555695,
          -0.18846338987350464,
          -0.16891621053218842,
          0.27482154965400696,
          0.18973411619663239,
          -0.045840755105018616,
          0.02053876593708992,
          -0.10189272463321686,
          -0.09035056829452515,
          -0.04573090001940727,
          -0.07036734372377396,
          -0.1198245957493782,
          0.11987383663654327,
          0.2112683206796646,
          -0.23048779368400574,
          0.049212001264095306,
          0.13801662623882294
        ],
        [
          -0.059460051357746124,
          -0.04803735017776489,
          0.022715693339705467,
          0.0679202601313591,
          0.0265427865087986,
          0.06677495688199997,
          0.03293643146753311,
          0.20445425808429718,
          -0.12302259355783463,
          0.21803002059459686,
          -0.03689900040626526,
          -0.08722973614931107,
          -0.15993857383728027,
          0.08369484543800354,
          -0.024388959631323814,
          0.061850834637880325,
          0.12425319105386734,
          -0.015966074541211128,
          0.07109640538692474,
          -0.08930186182260513
        ],
        [
          0.17767445743083954,
          -0.19301332533359528,
          0.11062531918287277,
          0.12505607306957245,
          -0.15367409586906433,
          0.18035103380680084,
          -0.2561424672603607,
          -0.06679753214120865,
          0.15536710619926453,
          -0.18794693052768707,
          0.13001257181167603,
          0.16963714361190796,
          0.049670007079839706,
          -0.1359701156616211,
          -0.21404777467250824,
          0.029204433783888817,
          0.03484750911593437,
          -0.07849986851215363,
          -0.23886680603027344,
          -0.1451338529586792
        ],
        [
          0.17247836291790009,
          0.21781329810619354,
          -0.051561396569013596,
          0.10256431996822357,
          -0.03852838650345802,
          0.15633752942085266,
          0.04585837200284004,
          -0.16751404106616974,
          0.00465557212010026,
          0.0007263884181156754,
          0.00805965717881918,
          -0.12263941019773483,
          -0.00904023740440607,
          -0.10512436181306839,
          0.06094994395971298,
          0.18658459186553955,
          -0.2306467592716217,
          0.25632214546203613,
          0.22305458784103394,
          -0.19236677885055542
        ],
        [
          -0.23106062412261963,
          0.0010891981655731797,
          -0.18772588670253754,
          -0.19303728640079498,
          0.20986482501029968,
          -0.01055570226162672,
          -0.1740402728319168,
          -0.16033987700939178,
          0.11271682381629944,
          0.016863439232110977,
          -0.21354112029075623,
          -0.20946504175662994,
          -0.16241493821144104,
          -0.04816756024956703,
          0.1821884959936142,
          -0.06262917071580887,
          0.16788023710250854,
          0.12592239677906036,
          0.16836659610271454,
          0.2356666922569275
        ],
        [
          0.20522849261760712,
          -0.18502843379974365,
          0.1602933555841446,
          0.1433895379304886,
          0.04486991465091705,
          0.06966351717710495,
          -0.12222062796354294,
          0.03541216254234314,
          -0.10600633174180984,
          -0.18920908868312836,
          0.1831822544336319,
          0.03138292208313942,
          -0.07739154994487762,
          -0.0009119145106524229,
          0.23924168944358826,
          0.1660999357700348,
          -0.13811394572257996,
          0.23527543246746063,
          -0.11635784804821014,
          0.10235518962144852
        ],
        [
          0.12450926750898361,
          0.05711480975151062,
          -0.04063466563820839,
          0.01029930543154478,
          0.03499465435743332,
          -0.21485242247581482,
          0.07389358431100845,
          0.028369270265102386,
          -0.1340518444776535,
          0.07525873929262161,
          -0.16180776059627533,
          0.037679627537727356,
          0.1719570904970169,
          0.08116289228200912,
          0.20042359828948975,
          -0.10791812092065811,
          -0.03985963761806488,
          0.2176523208618164,
          0.17215295135974884,
          -0.15167874097824097
        ],
        [
          0.21715983748435974,
          -0.010037042200565338,
          -0.043104417622089386,
          0.07719040662050247,
          -0.0617496632039547,
          -0.20803187787532806,
          -0.042458828538656235,
          -0.18761970102787018,
          -0.16024519503116608,
          -0.04914404824376106,
          0.1669704020023346,
          0.0845874771475792,
          0.19907376170158386,
          -0.0667089968919754,
          0.2134665697813034,
          -0.1493556797504425,
          0.13915880024433136,
          0.11412198096513748,
          0.01807771436870098,
          0.15033410489559174
        ],
        [
          -0.20540477335453033,
          0.1551269143819809,
          0.013536580838263035,
          0.18069952726364136,
          -0.07642979919910431,
          0.20975971221923828,
          -0.05499248579144478,
          0.18065151572227478,
          -0.21591481566429138,
          0.1464506983757019,
          0.10839749127626419,
          -0.08948538452386856,
          -0.06623637676239014,
          0.01697314716875553,
          0.08641502261161804,
          0.14857518672943115,
          -0.05604541301727295,
          -0.09104859828948975,
          0.16617687046527863,
          0.17849420011043549
        ],
        [
          0.0959433987736702,
          0.07014969736337662,
          0.2149331420660019,
          0.12234681844711304,
          0.04854993894696236,
          -0.054583534598350525,
          -0.004518159199506044,
          0.022692805156111717,
          0.06649105250835419,
          0.13530223071575165,
          0.033391304314136505,
          0.15390698611736298,
          0.11377592384815216,
          -0.2210480272769928,
          -0.2205773890018463,
          -0.07190743088722229,
          0.1750226467847824,
          -0.03496837243437767,
          -0.08654211461544037,
          0.10311376303434372
        ],
        [
          -0.08336172997951508,
          0.08148197829723358,
          0.06219163164496422,
          -0.046648602932691574,
          -0.24650359153747559,
          0.06039460003376007,
          0.045426059514284134,
          -0.020937124267220497,
          0.07009489834308624,
          -0.2090507298707962,
          0.10872017592191696,
          0.18602198362350464,
          -0.085540272295475,
          -0.18796522915363312,
          0.11513424664735794,
          0.19682371616363525,
          0.1436636745929718,
          -0.10926905274391174,
          -0.20447243750095367,
          0.03178585693240166
        ],
        [
          0.07924427837133408,
          0.09046836942434311,
          -0.22546164691448212,
          0.1358632892370224,
          0.14178141951560974,
          -0.18735691905021667,
          0.007342163473367691,
          0.025882761925458908,
          0.17249132692813873,
          0.2359788566827774,
          0.08341731876134872,
          -0.13603854179382324,
          0.0798705667257309,
          0.14651493728160858,
          -0.0569298155605793,
          -0.20715370774269104,
          -0.023114917799830437,
          0.017743371427059174,
          -0.1919187307357788,
          0.16777099668979645
        ],
        [
          -0.19885006546974182,
          0.18565988540649414,
          0.21464094519615173,
          -0.14835993945598602,
          -0.02019396796822548,
          -0.16636568307876587,
          0.07841671258211136,
          0.14101287722587585,
          0.06981007754802704,
          0.14500422775745392,
          -0.14682050049304962,
          -0.04183068126440048,
          0.010353660210967064,
          0.20660331845283508,
          -0.09259798377752304,
          -0.14455430209636688,
          -0.1279275119304657,
          0.1771276593208313,
          0.23751886188983917,
          0.11845633387565613
        ],
        [
          0.19730593264102936,
          0.19421039521694183,
          0.10758404433727264,
          0.18782414495944977,
          -0.011150973848998547,
          0.21636062860488892,
          0.00570065388455987,
          0.18756252527236938,
          -0.10979491472244263,
          -0.09515883773565292,
          -0.1206461563706398,
          0.21208682656288147,
          -0.13793164491653442,
          -0.21039992570877075,
          0.17335140705108643,
          -0.04571988061070442,
          -0.14587800204753876,
          -0.09799758344888687,
          0.010424352250993252,
          0.04970860853791237
        ],
        [
          0.17946812510490417,
          0.23875750601291656,
          0.10059506446123123,
          -0.05696921423077583,
          0.08654819428920746,
          -0.1748032420873642,
          -0.1564933806657791,
          -0.10154112428426743,
          0.20065639913082123,
          0.143899604678154,
          -0.12808939814567566,
          0.08429891616106033,
          0.25162315368652344,
          0.16682244837284088,
          0.18598823249340057,
          -0.098614901304245,
          0.05686770752072334,
          -0.18516801297664642,
          -0.01679079420864582,
          -0.1009841114282608
        ],
        [
          0.07185130566358566,
          0.21234820783138275,
          -0.1318330317735672,
          0.1284940391778946,
          0.05133459344506264,
          0.15345866978168488,
          -0.24245208501815796,
          -0.10976971685886383,
          0.05561413615942001,
          -0.15126347541809082,
          0.08607099950313568,
          0.22715216875076294,
          0.1610119342803955,
          0.22526642680168152,
          0.07715785503387451,
          -0.05529233068227768,
          0.14590781927108765,
          0.11082861572504044,
          -0.222010537981987,
          -0.0486781969666481
        ],
        [
          0.10052412748336792,
          0.0772891566157341,
          0.12565945088863373,
          0.11817432194948196,
          -0.09039843082427979,
          -0.006627184804528952,
          0.07562931627035141,
          -0.16298732161521912,
          0.04844173789024353,
          -0.20988698303699493,
          0.13168558478355408,
          -0.18873330950737,
          0.1085435077548027,
          -0.0831543579697609,
          0.11672380566596985,
          0.21122440695762634,
          0.20549455285072327,
          0.09120266139507294,
          0.15464937686920166,
          0.14756028354167938
        ],
        [
          0.10058368742465973,
          0.02766985073685646,
          0.0783742368221283,
          -0.06368257850408554,
          -0.08014016598463058,
          -0.009320934303104877,
          0.03727225959300995,
          -0.2349364310503006,
          -0.19492089748382568,
          0.08276469260454178,
          -0.08124998956918716,
          0.18591825664043427,
          0.15861178934574127,
          0.10872253030538559,
          0.23477968573570251,
          -0.1184261366724968,
          -0.09089712798595428,
          0.09117429703474045,
          0.18112456798553467,
          -0.17229513823986053
        ],
        [
          0.09871521592140198,
          -0.16468925774097443,
          0.0019941271748393774,
          -0.1006542444229126,
          0.15413185954093933,
          0.17099925875663757,
          0.05822470411658287,
          -0.053666941821575165,
          -0.18713590502738953,
          0.028800340369343758,
          -0.18322806060314178,
          -0.1688622087240219,
          -0.17148147523403168,
          0.10361052304506302,
          0.1919221431016922,
          -0.026609620079398155,
          -0.028811348602175713,
          -0.0661628469824791,
          0.11999596655368805,
          0.08272700011730194
        ],
        [
          0.10212565958499908,
          -0.07943867146968842,
          0.10744111239910126,
          -0.02384663186967373,
          0.04726696014404297,
          -0.21664276719093323,
          0.18084090948104858,
          0.024169540032744408,
          0.23802289366722107,
          0.006161578930914402,
          -0.008126867935061455,
          0.19865195453166962,
          -0.17677408456802368,
          0.25487062335014343,
          0.021256793290376663,
          0.11937624216079712,
          -0.15189582109451294,
          0.1747509241104126,
          0.27028703689575195,
          0.0390925332903862
        ],
        [
          0.11605997383594513,
          0.14924873411655426,
          0.04271635413169861,
          -0.12205086648464203,
          -0.07352544367313385,
          -0.06546773761510849,
          0.09316136687994003,
          0.005731562618166208,
          0.08930538594722748,
          0.08223126083612442,
          0.19592362642288208,
          -0.15391631424427032,
          -0.19740845263004303,
          -0.06316029280424118,
          0.251961886882782,
          -0.05889776721596718,
          0.06273561716079712,
          -0.03767428547143936,
          0.0675906389951706,
          -0.00555077800527215
        ],
        [
          -0.1814948171377182,
          -0.055321063846349716,
          0.05994642525911331,
          0.18740792572498322,
          -0.03871126472949982,
          -0.14969439804553986,
          0.11304082721471786,
          0.2000304013490677,
          0.030348388478159904,
          -0.008090587332844734,
          -0.0865955650806427,
          -0.14889679849147797,
          -0.16147397458553314,
          -0.13434097170829773,
          0.24529053270816803,
          -0.18244507908821106,
          0.09786287695169449,
          0.0470195971429348,
          0.2354695051908493,
          0.08287063986063004
        ],
        [
          0.13440269231796265,
          -0.23068805038928986,
          0.03300933539867401,
          0.19969750940799713,
          0.1788834035396576,
          0.014772520400583744,
          0.09641147404909134,
          0.024834096431732178,
          -0.01613333635032177,
          -0.04698815196752548,
          0.056510213762521744,
          -0.10430490970611572,
          -0.057408254593610764,
          0.16693627834320068,
          0.07409854978322983,
          0.22752857208251953,
          -0.07302745431661606,
          0.19037766754627228,
          -0.045726478099823,
          0.060861170291900635
        ],
        [
          0.1591227650642395,
          0.007993635721504688,
          0.1525622457265854,
          0.11351735889911652,
          0.10046351701021194,
          -0.20144061744213104,
          -0.005217212717980146,
          -0.19575564563274384,
          -0.148710697889328,
          0.19945764541625977,
          0.2732475697994232,
          -0.20838725566864014,
          0.23298120498657227,
          -0.09734000265598297,
          0.1953379511833191,
          -0.1784806102514267,
          -0.1234918162226677,
          0.18596003949642181,
          -0.0058356099762022495,
          -0.14547587931156158
        ],
        [
          -0.06883085519075394,
          0.1510428935289383,
          0.27240321040153503,
          0.08407212048768997,
          -0.18829691410064697,
          -0.03515291586518288,
          0.1273922473192215,
          0.1171470656991005,
          -0.06074095144867897,
          0.00409184442833066,
          -0.18111179769039154,
          0.0036547640338540077,
          0.2657490372657776,
          0.03224531188607216,
          -0.12821753323078156,
          0.13367661833763123,
          -0.03893931210041046,
          0.18595629930496216,
          -0.03785838931798935,
          -0.013472264632582664
        ],
        [
          0.029182882979512215,
          0.08529410511255264,
          0.1516343504190445,
          0.11132368445396423,
          0.10787712782621384,
          0.17537888884544373,
          0.02938917465507984,
          0.07088348269462585,
          0.07452775537967682,
          0.20348070561885834,
          0.08559373766183853,
          0.08361448347568512,
          0.12125927954912186,
          -0.05326339602470398,
          0.042381852865219116,
          -0.11390799283981323,
          0.018730156123638153,
          -0.08310303837060928,
          0.0882410779595375,
          0.15051084756851196
        ],
        [
          -0.10630367696285248,
          0.06099798530340195,
          0.09924385696649551,
          -0.17933379113674164,
          0.04726437106728554,
          -0.21613161265850067,
          0.20553149282932281,
          -0.11753235012292862,
          0.0928540900349617,
          -0.14908798038959503,
          -0.18479254841804504,
          -0.0790385752916336,
          -0.2375611960887909,
          0.00646227179095149,
          0.21931453049182892,
          -0.003992968238890171,
          -0.1415870189666748,
          0.030740726739168167,
          0.16205844283103943,
          0.06961197406053543
        ],
        [
          0.05193682014942169,
          0.19681453704833984,
          0.2114589810371399,
          -0.15242500603199005,
          -0.11399123072624207,
          0.022672830149531364,
          0.07416368275880814,
          0.07962559163570404,
          -0.126956045627594,
          -0.05602020025253296,
          -0.051962461322546005,
          0.19156351685523987,
          0.23679092526435852,
          0.014256819151341915,
          -0.1699804961681366,
          0.18284085392951965,
          -0.07535416632890701,
          -0.20990847051143646,
          0.20991189777851105,
          -0.09382843226194382
        ],
        [
          0.18980124592781067,
          -0.19101282954216003,
          0.061100028455257416,
          0.12587034702301025,
          -0.18170291185379028,
          0.023475326597690582,
          0.12965981662273407,
          -0.14092780649662018,
          -0.06259550899267197,
          -0.022578373551368713,
          -0.18403840065002441,
          0.11800502240657806,
          0.0034898032899945974,
          0.1203276589512825,
          -0.1706724464893341,
          -0.16286318004131317,
          0.1396280974149704,
          -0.1776125282049179,
          -0.00016570363368373364,
          0.12476876378059387
        ],
        [
          -0.05451409891247749,
          0.16300348937511444,
          -0.02380906417965889,
          -0.046992212533950806,
          -0.1692567765712738,
          0.017038580030202866,
          0.2004680335521698,
          -0.06653162837028503,
          0.22470921277999878,
          -0.19770081341266632,
          -0.12202861160039902,
          -0.13752272725105286,
          -0.02910197153687477,
          0.07679254561662674,
          -0.11335159093141556,
          0.024183182045817375,
          -0.06969395279884338,
          0.0991889014840126,
          0.07849450409412384,
          0.10932707786560059
        ],
        [
          -0.07543499767780304,
          -0.22191554307937622,
          -0.09090843796730042,
          -0.2445460557937622,
          -0.012549065053462982,
          0.09354051947593689,
          0.11901134252548218,
          0.04057862609624863,
          -0.10830620676279068,
          -0.1694517582654953,
          0.13065795600414276,
          0.058750953525304794,
          -0.07864672690629959,
          0.18714380264282227,
          0.14374779164791107,
          -0.1407884806394577,
          -0.15054398775100708,
          0.036953188478946686,
          -0.10169018059968948,
          0.11872263252735138
        ],
        [
          -0.1618981510400772,
          0.12090862542390823,
          0.028065789490938187,
          0.09534579515457153,
          0.0021383329294621944,
          -0.10033397376537323,
          -0.002735701622441411,
          -0.25877898931503296,
          -0.16704362630844116,
          0.07246968150138855,
          0.08706290274858475,
          0.1817743480205536,
          -0.08725417405366898,
          0.13263310492038727,
          0.024795977398753166,
          0.018590470775961876,
          -0.14107513427734375,
          0.19004522264003754,
          -0.11076091974973679,
          0.030567502602934837
        ],
        [
          0.13983401656150818,
          0.1334480345249176,
          -0.20784303545951843,
          -0.16910097002983093,
          0.04148110747337341,
          -0.06919819861650467,
          0.055672384798526764,
          -0.10748597234487534,
          0.14008645713329315,
          -0.11862733215093613,
          -0.12572455406188965,
          0.027034109458327293,
          0.2599465847015381,
          0.2616555392742157,
          0.036166757345199585,
          0.23567281663417816,
          0.02019481360912323,
          0.2361162155866623,
          0.09309264272451401,
          0.0986996740102768
        ]
      ],
      "b": [
        -0.029355265200138092,
        0.19976209104061127,
        0.1483812779188156,
        0.14951792359352112,
        -0.13363993167877197,
        0.17777149379253387,
        0.21932408213615417,
        0.08639959245920181,
        0.04084114357829094,
        -0.15793636441230774,
        -0.014362274669110775,
        -0.013374174945056438,
        -0.15403033792972565,
        -0.07384094595909119,
        0.1624644547700882,
        0.239911749958992,
        -0.1859106570482254,
        0.1228676363825798,
        -0.12182958424091339,
        -0.14327530562877655,
        -0.062841035425663,
        0.10604066401720047,
        -0.05927318334579468,
        0.022148028016090393,
        -0.1575043946504593,
        0.06669405847787857,
        -0.09554418921470642,
        -0.14810028672218323,
        0.017705634236335754,
        -0.09208028018474579,
        0.043498601764440536,
        -0.07038094848394394,
        0.039187412708997726,
        -0.13168352842330933,
        -0.05932106450200081,
        0.1583215594291687,
        -0.16884395480155945,
        -0.09802437573671341,
        -0.03066074475646019,
        -0.17256389558315277,
        -0.16091004014015198,
        0.21333160996437073,
        -0.15264081954956055,
        -0.0388031043112278,
        -0.1833992451429367,
        -0.15017278492450714,
        0.14904171228408813,
        -0.18509770929813385,
        0.12558920681476593,
        -0.018180320039391518,
        -0.11380237340927124,
        -0.13190405070781708,
        -0.10800955444574356,
        0.03701171278953552,
        0.06687773764133453,
        0.008136337623000145,
        0.00606002751737833,
        0.21465477347373962,
        0.057166364043951035,
        0.19509610533714294,
        0.04117339104413986,
        0.04853035882115364,
        -0.2209569215774536,
        -0.1443638950586319
      ]
    },
    {
      "W": [
        [
          -0.0835331454873085,
          0.03583049401640892,
          0.1308203786611557,
          -0.055306822061538696,
          0.07151784002780914,
          -0.053085070103406906,
          0.010659608989953995,
          0.11362983286380768,
          0.015342443250119686,
          0.02079688012599945,
          0.1505248099565506,
          -0.10624224692583084,
          -0.12097735702991486,
          0.09413241595029831,
          0.023368051275610924,
          -0.01502964086830616,
          -0.006790554150938988,
          0.04774757847189903,
          0.044665731489658356,
          0.060135841369628906,
          -0.08885962516069412,
          0.04391265660524368,
          0.012780040502548218,
          -0.09088040143251419,
          -0.0402667373418808,
          -0.09195324033498764,
          0.07599135488271713,
          0.05141790211200714,
          0.026680784299969673,
          -0.027326663956046104,
          -0.12675870954990387,
          0.02682085521519184,
          0.04179292917251587,
          0.11593009531497955,
          -0.07995745539665222,
          0.08536005765199661,
          0.0954577848315239,
          -0.0229762252420187,
          0.08991875499486923,
          0.022445840761065483,
          0.08799181878566742,
          -0.14550967514514923,
          0.00030739695648662746,
          0.10300245881080627,
          0.09127172082662582,
          0.06674540042877197,
          -0.12709641456604004,
          -0.0913790762424469,
          0.05640885606408119,
          0.0816238671541214,
          -0.037141136825084686,
          -0.06463402509689331,
          -0.04173311963677406,
          -0.0700332298874855,
          0.11893287301063538,
          -0.04005425050854683,
          0.07155852019786835,
          0.06707407534122467,
          -0.03051808848977089,
          -0.03364834189414978,
          -0.028956716880202293,
          0.0761447548866272,
          0.11895563453435898,
          0.019156791269779205
        ],
        [
          0.0216857697814703,
          0.16951701045036316,
          0.07265468686819077,
          -0.06680344045162201,
          0.10345929861068726,
          0.06219849735498428,
          0.0790380910038948,
          0.06351128220558167,
          0.012527694925665855,
          0.08030325919389725,
          0.10277795791625977,
          0.041928280144929886,
          -0.05261975899338722,
          -0.07491165399551392,
          0.14988793432712555,
          -0.06827080249786377,
          0.043961312621831894,
          -0.1407797634601593,
          0.07614557445049286,
          -0.05858046934008598,
          -0.009616773575544357,
          -0.0024466696195304394,
          0.08684225380420685,
          -0.15123388171195984,
          -0.05907788872718811,
          0.030136076733469963,
          -0.02366766147315502,
          -0.07084162533283234,
          -0.0019985518883913755,
          0.13412395119667053,
          -0.12803418934345245,
          -0.05658202990889549,
          0.1455891877412796,
          -0.016563670709729195,
          -0.1290084421634674,
          -0.0015589100075885653,
          -0.03388800844550133,
          -0.025769658386707306,
          0.001463001943193376,
          0.05415882542729378,
          0.17778147757053375,
          -0.11291506886482239,
          0.07196963578462601,
          0.08788267523050308,
          0.08927391469478607,
          -0.027822282165288925,
          0.0038374338764697313,
          -0.05163712799549103,
          -0.08288691192865372,
          -0.00043115386506542563,
          -0.10274100303649902,
          0.1288825273513794,
          0.11340951174497604,
          -0.027554892003536224,
          -0.09672331064939499,
          0.10398931056261063,
          0.011440537869930267,
          -0.0029227184131741524,
          0.06701367348432541,
          -0.07772728055715561,
          -0.005961112678050995,
          -0.050552792847156525,
          0.04661322012543678,
          -0.12488751113414764
        ],
        [
          -0.01277096476405859,
          -0.030073732137680054,
          -0.07969804853200912,
          0.06516161561012268,
          -0.03903850540518761,
          0.10506308078765869,
          -0.16411221027374268,
          0.098386250436306,
          0.08767025917768478,
          -0.11233977973461151,
          -0.07625669240951538,
          0.007366877980530262,
          0.03041256219148636,
          -0.10773846507072449,
          0.007527525536715984,
          0.13955199718475342,
          -0.07299342751502991,
          0.0386183001101017,
          0.079252690076828,
          0.02174152247607708,
          0.012349755503237247,
          -0.12624739110469818,
          -0.03944343328475952,
          -0.16708602011203766,
          0.06183300539851189,
          0.09624889492988586,
          -0.046229418367147446,
          0.09933441877365112,
          -0.048963528126478195,
          -0.07574847340583801,
          0.07873114943504333,
          0.08466174453496933,
          0.09115620702505112,
          -0.08351488411426544,
          0.07475428283214569,
          -0.008920826017856598,
          0.07413413375616074,
          -0.1084037646651268,
          0.05591718852519989,
          -0.07447487115859985,
          0.105127714574337,
          -0.12892518937587738,
          -0.06166645511984825,
          0.08332625031471252,
          0.06748282164335251,
          -0.02303915098309517,
          -0.04395456239581108,
          0.09824864566326141,
          0.12178930640220642,
          0.09099135547876358,
          0.0454249270260334,
          -0.07410252839326859,
          -0.08764088153839111,
          -0.04891332983970642,
          -0.026759836822748184,
          -0.024971535429358482,
          0.11865314096212387,
          -0.10046686977148056,
          0.03513715788722038,
          -0.008186383172869682,
          -0.07209618389606476,
          0.13127006590366364,
          0.10466450452804565,
          -0.00282057817094028
        ],
        [
          -0.1065237820148468,
          0.10029931366443634,
          0.041605204343795776,
          0.032332584261894226,
          0.04500708729028702,
          -0.10732197016477585,
          -0.018038369715213776,
          0.08954112231731415,
          -0.08112847805023193,
          0.012694058939814568,
          -0.04246576502919197,
          -0.08619332313537598,
          0.019147910177707672,
          0.07900752872228622,
          0.012970734387636185,
          0.02656862698495388,
          -0.04600510373711586,
          0.11372479796409607,
          -0.15433737635612488,
          0.0906139463186264,
          0.002609007991850376,
          0.05515588819980621,
          -0.0060074180364608765,
          -0.08678258955478668,
          0.07868258655071259,
          0.10937019437551498,
          0.024606605991721153,
          -0.05036883056163788,
          0.10400068014860153,
          0.03022303432226181,
          -0.017505761235952377,
          0.04941879212856293,
          -0.035459332168102264,
          0.008317464962601662,
          -0.013441900722682476,
          0.20631402730941772,
          -0.05684465914964676,
          0.16322559118270874,
          -0.07769832015037537,
          0.023425694555044174,
          -0.05596255511045456,
          -0.11326918751001358,
          0.01458868756890297,
          0.07459321618080139,
          0.07029262185096741,
          0.04180481284856796,
          -0.030923552811145782,
          -0.01983850635588169,
          0.105098195374012,
          0.029130063951015472,
          0.036188721656799316,
          0.0660858005285263,
          0.02660761959850788,
          0.10379254072904587,
          -0.08689793199300766,
          0.019239500164985657,
          0.005405745469033718,
          -0.014530534856021404,
          -0.027073873206973076,
          0.1467847377061844,
          0.10496324300765991,
          -0.018301568925380707,
          -0.11435840278863907,
          0.054084714502096176
        ],
        [
          -0.029420053586363792,
          0.011830947361886501,
          0.04588346928358078,
          0.005130937322974205,
          0.09961088001728058,
          -0.10597207397222519,
          -0.09895787388086319,
          0.07817044854164124,
          -0.016761574894189835,
          0.03369659185409546,
          -0.05336325615644455,
          0.08889973908662796,
          -0.07393638789653778,
          0.019221000373363495,
          0.10410451889038086,
          0.1118815466761589,
          0.04433122277259827,
          0.0355503149330616,
          -0.09913679957389832,
          -0.0438196025788784,
          -0.016806375235319138,
          -0.13165277242660522,
          0.04800412058830261,
          0.08451778441667557,
          -0.03810364007949829,
          0.1440238058567047,
          0.059745289385318756,
          0.07671093940734863,
          -0.07335929572582245,
          -0.06857934594154358,
          0.014647775329649448,
          -0.12953169643878937,
          -0.05702807009220123,
          -0.02494863048195839,
          -0.05815475806593895,
          0.06667245924472809,
          -0.13641127943992615,
          -0.03511875495314598,
          -0.108564093708992,
          0.05730849876999855,
          0.09636035561561584,
          -0.15336520969867706,
          0.01098173949867487,
          0.12452379614114761,
          -0.046331942081451416,
          0.05617597699165344,
          -0.026380181312561035,
          0.03430604189634323,
          -0.08009417355060577,
          -0.04844219237565994,
          0.08926751464605331,
          -0.1162421926856041,
          -0.062018293887376785,
          -0.00300207594409585,
          0.008627917617559433,
          -0.08947943150997162,
          0.012406501919031143,
          0.01986899971961975,
          -0.0881820023059845,
          -0.1273850053548813,
          0.008386763744056225,
          0.119691401720047,
          -0.016714422032237053,
          0.02072988823056221
        ],
        [
          -0.0209606122225523,
          -0.1199430301785469,
          -0.1363627314567566,
          0.06418152153491974,
          -0.043892987072467804,
          0.08176317811012268,
          -0.10031934827566147,
          0.09313959628343582,
          0.05568953603506088,
          0.12655501067638397,
          -0.03922170773148537,
          0.08526577800512314,
          -0.06354708969593048,
          0.08306705951690674,
          -0.0759027823805809,
          0.05013911798596382,
          -0.05929967388510704,
          0.15510018169879913,
          -0.02825218066573143,
          0.05562634766101837,
          0.08785257488489151,
          -0.029609113931655884,
          -0.03619013726711273,
          0.12732307612895966,
          0.10324669629335403,
          -0.179338276386261,
          -0.12053784728050232,
          0.07400128245353699,
          0.04164581373333931,
          0.021642718464136124,
          0.11371906846761703,
          0.10050477832555771,
          0.02413211390376091,
          0.050988953560590744,
          0.06160271540284157,
          -0.04435453191399574,
          -0.0315166637301445,
          0.001800572033971548,
          0.03865407407283783,
          0.07488603889942169,
          -0.1113119125366211,
          0.11063898354768753,
          0.08758144080638885,
          -0.02408422902226448,
          0.05913520231842995,
          -0.0015241375658661127,
          -0.02529757469892502,
          0.04543052613735199,
          0.06954475492238998,
          -0.04530121386051178,
          0.04212635010480881,
          0.06392699480056763,
          -0.02288881689310074,
          0.10347461700439453,
          0.029640192165970802,
          -0.08071164041757584,
          -0.028620930388569832,
          0.05018480122089386,
          0.08055094629526138,
          0.03944666311144829,
          0.1039528027176857,
          -0.052365317940711975,
          0.021763091906905174,
          -0.02223035879433155
        ],
        [
          -0.006562560796737671,
          0.06468040496110916,
          -0.10006655007600784,
          0.10615702718496323,
          0.07174710929393768,
          0.05900558829307556,
          0.03555538132786751,
          0.1347089409828186,
          -0.021821048110723495,
          -0.03871588781476021,
          0.052385494112968445,
          -0.03797944635152817,
          0.0008612098172307014,
          -0.09233594685792923,
          -0.023589588701725006,
          -0.10774609446525574,
          -0.10454733669757843,
          -0.09091159701347351,
          0.11825329810380936,
          0.07986317574977875,
          0.042348552495241165,
          -0.10933639854192734,
          0.041661784052848816,
          0.07817245274782181,
          0.12854190170764923,
          -0.1777380406856537,
          -0.07033278793096542,
          0.08097173273563385,
          -0.054586660116910934,
          -0.08924826979637146,
          0.16490325331687927,
          -0.013864243403077126,
          0.11589409410953522,
          0.09117291867733002,
          -0.1115613728761673,
          0.05707321688532829,
          0.010939536616206169,
          0.0817679688334465,
          0.07366376370191574,
          0.10437575727701187,
          0.1236375942826271,
          0.019168248400092125,
          -0.018256423994898796,
          -0.0782371386885643,
          0.08774427324533463,
          -0.11261387169361115,
          -0.013415863737463951,
          0.013962323777377605,
          -0.01059018075466156,
          0.03607936576008797,
          0.10575160384178162,
          -0.09262524545192719,
          0.10914511233568192,
          -0.09317602962255478,
          -0.11782611161470413,
          0.036735497415065765,
          0.07565317302942276,
          0.07257462292909622,
          -0.10622613877058029,
          0.0013965852558612823,
          0.04548254981637001,
          0.055982109159231186,
          0.03249918669462204,
          -0.01677294261753559
        ],
        [
          0.016815975308418274,
          -0.010523572564125061,
          0.10769349336624146,
          0.04181736707687378,
          -0.006216391921043396,
          -0.006306067109107971,
          0.01848354935646057,
          -0.10243052244186401,
          -0.061675116419792175,
          0.02914881706237793,
          0.04636432230472565,
          -0.026083484292030334,
          -0.08426789939403534,
          -0.04457302391529083,
          0.10206662118434906,
          -0.10474325716495514,
          -0.0037646442651748657,
          -0.07144206762313843,
          0.08293652534484863,
          -0.022999748587608337,
          -0.02276761829853058,
          -0.0578363835811615,
          0.08295565843582153,
          0.05708089470863342,
          -0.08349855244159698,
          0.07256610691547394,
          -0.08571651577949524,
          -0.047892987728118896,
          0.08787821233272552,
          0.12257330119609833,
          -0.027959495782852173,
          0.0785384476184845,
          -0.07170145213603973,
          -0.08862502872943878,
          0.11449569463729858,
          -0.027590811252593994,
          0.01141802966594696,
          0.09568466246128082,
          -0.02952936291694641,
          0.12456369400024414,
          -0.06849485635757446,
          0.02870677411556244,
          0.054762810468673706,
          -0.09820644557476044,
          -0.015424937009811401,
          -0.0022829025983810425,
          -0.07180145382881165,
          -0.10863994061946869,
          -0.08250652253627777,
          -0.040958598256111145,
          -0.06427696347236633,
          0.07753084599971771,
          0.026924893260002136,
          -0.0069742947816848755,
          -0.11470487713813782,
          -0.12333567440509796,
          -0.016604244709014893,
          -0.017592504620552063,
          -0.0844259113073349,
          0.08670978248119354,
          -0.009894698858261108,
          -0.07967062294483185,
          -0.07299412786960602,
          0.10591982305049896
        ],
        [
          0.10128838568925858,
          -0.035353295505046844,
          0.10272587090730667,
          -0.05949990451335907,
          0.09627248346805573,
          0.06158978119492531,
          -0.0507657416164875,
          -0.06195768713951111,
          0.13716472685337067,
          0.013482576236128807,
          -0.1322014480829239,
          0.015730874612927437,
          -0.055479396134614944,
          0.1197233498096466,
          0.18251733481884003,
          0.1223333403468132,
          0.053596723824739456,
          -0.04291912913322449,
          0.05831362307071686,
          0.04675266519188881,
          -0.0708456039428711,
          0.10855524241924286,
          0.030981197953224182,
          -0.07661379873752594,
          -0.0431666262447834,
          0.06534884124994278,
          0.11154837161302567,
          -0.11723293364048004,
          -0.1162758395075798,
          0.10655347257852554,
          -0.018402494490146637,
          0.08119643479585648,
          -0.0545005202293396,
          0.023325592279434204,
          0.03736427426338196,
          0.0991312637925148,
          -0.014569347724318504,
          0.08783260732889175,
          -0.12513718008995056,
          -0.09089872986078262,
          0.035765357315540314,
          -0.08434486389160156,
          0.03526422753930092,
          -0.038790661841630936,
          -0.15873445570468903,
          0.15169748663902283,
          -0.03178306668996811,
          -0.10221859067678452,
          0.15600065886974335,
          0.10658776760101318,
          0.13025352358818054,
          -0.01209633331745863,
          0.039950545877218246,
          -0.10095691680908203,
          -0.01171430665999651,
          0.003121081041172147,
          0.02751505933701992,
          -0.08158329129219055,
          0.09104601293802261,
          0.06988655775785446,
          0.15748412907123566,
          0.09310850501060486,
          0.05514408275485039,
          0.0029621170833706856
        ],
        [
          -0.012064065784215927,
          -0.07364357262849808,
          0.12262289971113205,
          -0.09544263780117035,
          -0.03823474422097206,
          -0.0033987616188824177,
          0.12856373190879822,
          0.09609783440828323,
          -0.052386511117219925,
          -0.04319653660058975,
          0.05904175341129303,
          -0.12141607701778412,
          0.13166499137878418,
          -0.08801150321960449,
          -0.0003029183717444539,
          0.12629669904708862,
          0.0721074640750885,
          0.04280034080147743,
          0.02654377371072769,
          0.04689982160925865,
          0.042934220284223557,
          -0.04741944372653961,
          -0.06880955398082733,
          0.12380223721265793,
          -0.05156504362821579,
          0.1307700127363205,
          -0.07769955694675446,
          0.07178948819637299,
          0.03672780841588974,
          -0.052330005913972855,
          -0.17049331963062286,
          -0.1291278898715973,
          0.0896276980638504,
          0.09343849122524261,
          0.025199541822075844,
          0.10789867490530014,
          -0.03994925320148468,
          -0.012794346548616886,
          -0.036558642983436584,
          0.06464940309524536,
          -0.09786251187324524,
          -0.02945023402571678,
          -0.002506485441699624,
          0.1444179266691208,
          -0.01343394536525011,
          0.03965207561850548,
          0.02773248217999935,
          0.017553705722093582,
          0.0076433392241597176,
          -0.02441275492310524,
          0.06910302489995956,
          0.12979915738105774,
          0.09157436341047287,
          -0.015537097118794918,
          0.017915690317749977,
          0.11771887540817261,
          -0.04072722792625427,
          -0.008186433464288712,
          0.0825086459517479,
          -0.023875262588262558,
          0.07896780967712402,
          0.10708586871623993,
          -0.03672080859541893,
          0.14785288274288177
        ],
        [
          -0.12248116731643677,
          -0.0519014336168766,
          -0.08597975224256516,
          0.040154118090867996,
          0.04971912130713463,
          -0.009846330620348454,
          0.08213123679161072,
          0.13401393592357635,
          0.17866380512714386,
          0.06107187643647194,
          0.02637956663966179,
          0.09469909965991974,
          -0.01899237371981144,
          -0.08335288614034653,
          -0.01299259066581726,
          0.10497790575027466,
          -0.1353738158941269,
          0.08144224435091019,
          -0.07322996109724045,
          0.1628335565328598,
          -0.11904073506593704,
          0.06006070598959923,
          0.0732579380273819,
          -0.19258257746696472,
          0.07865718752145767,
          -0.002108530607074499,
          0.12204129248857498,
          -0.050485581159591675,
          -0.08875968307256699,
          0.0863586887717247,
          0.14671090245246887,
          0.128980353474617,
          0.08851560205221176,
          0.14306466281414032,
          0.05143909528851509,
          0.14558368921279907,
          -0.19330033659934998,
          0.14489801228046417,
          -0.06816060096025467,
          -0.06608256697654724,
          -0.005837615579366684,
          -0.1544896364212036,
          0.003238914767280221,
          -0.02360852248966694,
          -0.11049418896436691,
          0.07739457488059998,
          -0.018945185467600822,
          -0.05477476865053177,
          0.024144167080521584,
          -0.03199363127350807,
          0.0768347680568695,
          -0.07530265301465988,
          -0.010662268847227097,
          0.10764157772064209,
          -0.011349581182003021,
          0.05771660804748535,
          -0.06863684207201004,
          -0.04059281200170517,
          0.04472887143492699,
          -0.017812049016356468,
          0.10045517981052399,
          0.025293691083788872,
          0.026675177738070488,
          -0.08025163412094116
        ],
        [
          -0.07514853775501251,
          0.0003636784094851464,
          0.07444100081920624,
          0.028664177283644676,
          0.18550452589988708,
          -0.013430673629045486,
          0.17812253534793854,
          -0.0671042948961258,
          0.010906226933002472,
          -0.040331535041332245,
          0.06251484155654907,
          0.011558711528778076,
          0.031457263976335526,
          -0.035855043679475784,
          0.12442420423030853,
          -0.056417811661958694,
          0.014608882367610931,
          -0.1676926463842392,
          -0.06728514283895493,
          0.044942159205675125,
          -0.16713090240955353,
          -0.16956865787506104,
          0.0011141449213027954,
          -0.16271333396434784,
          -0.04817027971148491,
          -0.01823301799595356,
          0.08192842453718185,
          0.10642556846141815,
          0.07217051833868027,
          0.04743789881467819,
          -0.05772333964705467,
          0.09723562002182007,
          0.06715318560600281,
          0.08820109069347382,
          0.05521051958203316,
          -0.0803031176328659,
          -0.004110812209546566,
          0.18798694014549255,
          -0.026507487520575523,
          0.10094064474105835,
          0.007488416042178869,
          -0.04826262965798378,
          -0.150453120470047,
          0.10811764746904373,
          -0.1241266056895256,
          0.12305665761232376,
          -0.08893182128667831,
          0.10002091526985168,
          0.1659725457429886,
          -0.04503313824534416,
          0.097254179418087,
          0.09626737982034683,
          0.010664848610758781,
          0.10024484992027283,
          -0.06842327117919922,
          0.11249640583992004,
          0.015616292133927345,
          0.06975197792053223,
          0.09597380459308624,
          0.1291559934616089,
          0.04345041513442993,
          0.10530488938093185,
          0.08478903025388718,
          -0.01803462579846382
        ],
        [
          0.09029681235551834,
          -0.029443463310599327,
          0.08260378241539001,
          0.08020897209644318,
          0.005530213005840778,
          0.056558553129434586,
          0.01608189567923546,
          0.044175803661346436,
          -0.05922546237707138,
          0.04264723137021065,
          0.05765247717499733,
          0.1216900646686554,
          0.12644174695014954,
          -0.0386410616338253,
          -0.15694980323314667,
          0.08945884555578232,
          -0.06936419010162354,
          -0.1642693728208542,
          0.0009572643903084099,
          0.06565847247838974,
          -0.050151094794273376,
          -0.09985288977622986,
          0.11708301305770874,
          -0.08827020227909088,
          -0.049731411039829254,
          -0.08866522461175919,
          0.13524551689624786,
          -0.017010435461997986,
          -0.0822606310248375,
          -0.09812631458044052,
          -0.10751084983348846,
          -0.03908388316631317,
          -0.13705924153327942,
          0.1455918401479721,
          -0.08952056616544724,
          0.10301092267036438,
          -0.12391047179698944,
          -0.09988966584205627,
          0.05979957804083824,
          -0.006260971538722515,
          -0.059271812438964844,
          -0.1257968246936798,
          -0.023287441581487656,
          -0.03604380786418915,
          -0.014748791232705116,
          0.1950657218694687,
          -0.07465503364801407,
          0.00880774948745966,
          0.034134622663259506,
          0.04131948575377464,
          0.11305208504199982,
          -0.07918322086334229,
          0.003817207645624876,
          0.12690362334251404,
          0.03816509619355202,
          0.031126318499445915,
          -0.04652027785778046,
          -0.06782465428113937,
          0.14199422299861908,
          0.005015956703573465,
          0.04171927273273468,
          -0.07308927923440933,
          -0.11585093289613724,
          0.04420211538672447
        ],
        [
          -0.05348117649555206,
          0.0015284783439710736,
          0.06762629747390747,
          -0.07175374031066895,
          0.10405426472425461,
          -0.05206042900681496,
          0.05840497463941574,
          0.09192484617233276,
          0.12124595046043396,
          -0.13671161234378815,
          0.007946662604808807,
          0.08213157951831818,
          -0.0677092894911766,
          0.012608334422111511,
          0.044520169496536255,
          0.05725819244980812,
          -0.0330490842461586,
          0.12858562171459198,
          0.1502446085214615,
          0.06952603161334991,
          0.05107516422867775,
          -0.030053963884711266,
          -0.10098420083522797,
          -0.032490603625774384,
          -0.005285322200506926,
          -0.09157343953847885,
          0.15174447000026703,
          0.07448892295360565,
          -0.019922593608498573,
          0.11831878870725632,
          -0.058448005467653275,
          0.018189407885074615,
          0.15433114767074585,
          -0.0836319774389267,
          0.06796951591968536,
          -0.043104175478219986,
          -0.06339120119810104,
          -0.039173971861600876,
          -0.10221193730831146,
          0.14484663307666779,
          -0.024270402267575264,
          -0.06246357038617134,
          0.11547880619764328,
          0.04611201584339142,
          -0.06201936677098274,
          0.08950136601924896,
          0.06429179757833481,
          -0.03718743473291397,
          0.0098618995398283,
          -0.009407831355929375,
          0.03581323102116585,
          -0.051398493349552155,
          0.03585808351635933,
          -0.11843647062778473,
          0.0819394662976265,
          0.04157882556319237,
          0.007325401064008474,
          0.04605213180184364,
          0.10743282735347748,
          -0.04646501690149307,
          0.047202400863170624,
          0.07418616116046906,
          -0.14430637657642365,
          -0.12409386783838272
        ],
        [
          0.08719037473201752,
          -0.037139892578125,
          -0.017204472795128822,
          0.08383381366729736,
          -0.1900867521762848,
          -0.05032800883054733,
          0.07257221639156342,
          0.049562305212020874,
          0.10214027017354965,
          0.08812607824802399,
          0.1099405437707901,
          -0.06295651942491531,
          0.06372646242380142,
          0.08064493536949158,
          0.03971913829445839,
          0.13069717586040497,
          -0.04787096381187439,
          0.008660159073770046,
          -0.10912776738405228,
          0.06071416288614273,
          0.05926574394106865,
          -0.15607690811157227,
          0.013592720031738281,
          0.01409614272415638,
          0.1356273889541626,
          -0.06167256087064743,
          -0.051339711993932724,
          -0.0484037846326828,
          -0.025760935619473457,
          -0.05225645750761032,
          0.08453091233968735,
          0.06261563301086426,
          -0.015283126384019852,
          0.0763922929763794,
          -0.020697690546512604,
          -0.05830438435077667,
          -0.062242019921541214,
          0.09152450412511826,
          0.04067401587963104,
          -0.0905681923031807,
          0.07721076905727386,
          0.15286733210086823,
          0.1308327317237854,
          0.015807684510946274,
          0.10994956642389297,
          -0.09600596874952316,
          -0.07776407897472382,
          0.041892651468515396,
          -0.02411225624382496,
          0.016486093401908875,
          0.02308172918856144,
          0.01480227243155241,
          -0.031692471355199814,
          -0.0541100837290287,
          -0.06930623203516006,
          -0.09735555201768875,
          -0.06516194343566895,
          0.12457744032144547,
          -0.14005813002586365,
          -0.046701494604349136,
          -0.09217680245637894,
          0.037280965596437454,
          0.06287932395935059,
          0.020327840000391006
        ],
        [
          0.08292941749095917,
          0.06476884335279465,
          0.10749784857034683,
          0.04978509992361069,
          -0.08069699257612228,
          0.1307942271232605,
          -0.047543879598379135,
          -0.11573581397533417,
          -0.10500209033489227,
          0.008969059213995934,
          -0.10488049685955048,
          -0.07590588927268982,
          0.09539923816919327,
          -0.1141510084271431,
          0.030429361388087273,
          -0.07207563519477844,
          -0.11070612818002701,
          -0.0893484577536583,
          0.12268757075071335,
          -0.11378880590200424,
          -0.07854481786489487,
          0.03443119674921036,
          -0.017944976687431335,
          -0.09866511821746826,
          -0.036136966198682785,
          0.020098263397812843,
          -0.08790997415781021,
          -0.12032420933246613,
          -0.04777561128139496,
          -0.07844480127096176,
          0.027382079511880875,
          0.11389312893152237,
          -0.0032982497941702604,
          -0.03075285628437996,
          0.11875398457050323,
          -0.0029243608005344868,
          0.015377921983599663,
          0.06537393480539322,
          -0.06352411210536957,
          -0.11294449865818024,
          -0.014273764565587044,
          0.0404776968061924,
          0.017756465822458267,
          0.035426195710897446,
          -0.08435138314962387,
          0.14614732563495636,
          0.10364387929439545,
          0.010234396904706955,
          -0.032211754471063614,
          -0.02031472511589527,
          0.0565369538962841,
          0.06373020261526108,
          -0.09204915165901184,
          -0.09044969081878662,
          0.11038611829280853,
          -0.035180214792490005,
          -0.09135588258504868,
          0.017176343128085136,
          -0.055268049240112305,
          -0.06581834703683853,
          0.032190434634685516,
          -0.015691842883825302,
          0.09144892543554306,
          -0.06738860160112381
        ],
        [
          0.022566527128219604,
          0.05446736887097359,
          0.1363248974084854,
          0.1404198408126831,
          0.05928439274430275,
          -0.05749526247382164,
          -0.07781524956226349,
          0.007040639873594046,
          0.11068782210350037,
          -0.07658802717924118,
          -0.03882363811135292,
          -0.05935002863407135,
          -0.03408420458436012,
          -0.04552355408668518,
          0.15060238540172577,
          0.034124765545129776,
          0.09076668322086334,
          0.0854453444480896,
          -0.1281510442495346,
          0.10729456692934036,
          0.06902296841144562,
          0.025594305247068405,
          0.11764492094516754,
          -0.052221015095710754,
          -0.039526864886283875,
          -0.0021122258622199297,
          0.044653866440057755,
          0.11212117969989777,
          -0.04722468927502632,
          0.1088593602180481,
          -0.07577771693468094,
          0.03134710714221001,
          0.10432665050029755,
          -0.06230572983622551,
          -0.0610552541911602,
          0.12150309979915619,
          -0.04389583319425583,
          0.007493886165320873,
          -0.05299493297934532,
          0.06843243539333344,
          0.15636086463928223,
          -0.11492334306240082,
          0.1251065731048584,
          -0.04689005762338638,
          -0.039099253714084625,
          0.041325949132442474,
          0.03640568628907204,
          -0.017343344166874886,
          -0.02503715641796589,
          -0.11217194050550461,
          0.08608042448759079,
          -0.17170538008213043,
          0.10488913208246231,
          -0.025825008749961853,
          -0.11730275303125381,
          0.18983213603496552,
          -0.018154826015233994,
          -0.07549247145652771,
          -0.04798154905438423,
          0.09074297547340393,
          -0.06313659995794296,
          0.09598130732774734,
          -0.08683301508426666,
          -0.03523552790284157
        ],
        [
          -0.0002759605413302779,
          -0.06512821465730667,
          0.005842625163495541,
          -0.07092783600091934,
          -0.029168883338570595,
          -0.029887275770306587,
          0.1491633802652359,
          0.12123897671699524,
          0.017533602192997932,
          0.019722772762179375,
          -0.17096838355064392,
          -0.026226839050650597,
          -0.007238021120429039,
          -0.10298410058021545,
          -0.001511146780103445,
          -0.12144986540079117,
          -0.007070800755172968,
          0.09659697115421295,
          -0.11663385480642319,
          -0.12926359474658966,
          0.034468915313482285,
          0.0028917472809553146,
          0.053690433502197266,
          -0.09018079191446304,
          -0.05054496228694916,
          0.26109251379966736,
          -0.06867149472236633,
          -0.10667529702186584,
          0.06867904961109161,
          0.13615716993808746,
          0.03836221247911453,
          0.06109809875488281,
          -0.10386250913143158,
          -0.013138513080775738,
          0.136993408203125,
          -0.06455449759960175,
          0.07074421644210815,
          0.028106307610869408,
          -0.03830346465110779,
          0.0639963299036026,
          -0.14712318778038025,
          -0.0012372119817882776,
          -0.08051203936338425,
          0.04879910871386528,
          0.036580391228199005,
          0.12372380495071411,
          -0.04666895419359207,
          -0.0582801029086113,
          0.13286155462265015,
          -0.08707230538129807,
          0.07910200953483582,
          -0.0870567038655281,
          -0.011217024177312851,
          -0.05590236559510231,
          -0.019291775301098824,
          -0.09497281908988953,
          0.05778011679649353,
          0.050763122737407684,
          -0.019991416484117508,
          0.014416182413697243,
          -0.09156405180692673,
          0.06384842842817307,
          0.09712618589401245,
          0.10593508183956146
        ],
        [
          -0.01820310391485691,
          0.021547386422753334,
          -0.01942664012312889,
          0.09151089191436768,
          0.021103134378790855,
          -0.09925651550292969,
          -0.12400144338607788,
          0.03665842488408089,
          0.026275739073753357,
          0.019619956612586975,
          0.08868861198425293,
          -0.07498838007450104,
          0.052546609193086624,
          0.07204844057559967,
          0.0006577534950338304,
          0.041496265679597855,
          -0.08634604513645172,
          -0.05750896781682968,
          0.10826313495635986,
          -0.028255444020032883,
          -0.005586445331573486,
          -0.09314999729394913,
          -0.057608768343925476,
          0.09634972363710403,
          0.003236629068851471,
          0.03959231451153755,
          0.01021142303943634,
          0.020896047353744507,
          0.051507070660591125,
          -0.0003268553118687123,
          -0.015667781233787537,
          -0.0866181030869484,
          -0.07776349782943726,
          -0.0012477338314056396,
          -0.033071041107177734,
          0.07931575179100037,
          0.08750791102647781,
          -0.113218292593956,
          0.012120291590690613,
          -0.12688344717025757,
          -0.10548475384712219,
          0.10838273912668228,
          -0.016772031784057617,
          -0.10224972665309906,
          -0.09847775101661682,
          0.0020864903926849365,
          0.04099844768643379,
          0.03898117318749428,
          0.022826606407761574,
          0.08229684829711914,
          -0.004435908980667591,
          -0.09471963346004486,
          -0.047725170850753784,
          -0.1323978155851364,
          -0.11065748333930969,
          -0.08070407807826996,
          -0.11733266711235046,
          -0.03215205669403076,
          0.030742518603801727,
          0.07635422796010971,
          -0.07259687781333923,
          0.0541217103600502,
          0.017742589116096497,
          -0.055495403707027435
        ],
        [
          0.11742180585861206,
          -0.09846687316894531,
          -0.02952801063656807,
          0.039319999516010284,
          0.04374247416853905,
          0.05270428955554962,
          0.06371273845434189,
          0.06693421304225922,
          -0.07421548664569855,
          0.07565411180257797,
          0.0006151740672066808,
          -0.03275460749864578,
          -0.123663991689682,
          -0.09562283009290695,
          -0.06329673528671265,
          0.07181170582771301,
          -0.007996801286935806,
          -0.040562115609645844,
          -0.055579014122486115,
          0.11125314980745316,
          -0.011347787454724312,
          0.09590756148099899,
          -0.11174847185611725,
          -0.027348916977643967,
          0.03583524748682976,
          0.07409588247537613,
          -0.06635056436061859,
          0.04642276465892792,
          -0.08128305524587631,
          0.13514909148216248,
          0.061378829181194305,
          0.0996210128068924,
          0.09990686178207397,
          0.015107308514416218,
          -0.11018665879964828,
          -0.14295366406440735,
          0.006997860036790371,
          0.04166464880108833,
          -0.04058346897363663,
          -0.03987753391265869,
          -0.06578978896141052,
          0.02603698894381523,
          -0.09715814888477325,
          0.09542980045080185,
          0.07052706182003021,
          -0.10559899359941483,
          -0.034739620983600616,
          0.005790582858026028,
          0.024643147364258766,
          0.10768730193376541,
          -0.04803790524601936,
          0.04114677384495735,
          0.07829690724611282,
          -0.06946693360805511,
          0.0727575272321701,
          0.09115953743457794,
          -0.11132290959358215,
          0.012602116912603378,
          -0.1178588718175888,
          -0.004077923484146595,
          0.052589450031518936,
          0.1021612286567688,
          0.05189039558172226,
          -0.016108565032482147
        ],
        [
          0.15625259280204773,
          0.03876630216836929,
          0.08311820030212402,
          -0.05631890892982483,
          -0.010173742659389973,
          0.14603690803050995,
          -0.07442176342010498,
          -0.03469535708427429,
          -0.07697464525699615,
          0.043492626398801804,
          -0.03419339656829834,
          -0.025673680007457733,
          0.1337110698223114,
          0.05198206007480621,
          -0.02927967719733715,
          -0.0233200341463089,
          -0.11189484596252441,
          0.15857239067554474,
          0.07588619738817215,
          -0.05754413455724716,
          -0.0405903160572052,
          -0.052316080778837204,
          -0.1160445362329483,
          -0.01869974099099636,
          -0.06749825924634933,
          -0.04374447837471962,
          0.04514862596988678,
          -0.0195629745721817,
          -0.013979809358716011,
          -0.030140256509184837,
          -0.007155795115977526,
          -0.023498592898249626,
          -0.06714250892400742,
          -0.015726780518889427,
          0.006564012728631496,
          0.04274284467101097,
          -0.052312884479761124,
          -0.14248329401016235,
          0.13383835554122925,
          -0.007316605653613806,
          0.052773937582969666,
          0.01936560682952404,
          0.011662215925753117,
          -0.09796503186225891,
          0.0519464910030365,
          0.04697801172733307,
          0.14033928513526917,
          0.00422331877052784,
          0.0589846670627594,
          0.05295088142156601,
          -0.032588809728622437,
          0.16236715018749237,
          0.046627964824438095,
          -0.023735105991363525,
          0.06330011785030365,
          -0.05604918673634529,
          -0.09599999338388443,
          0.12576143443584442,
          -0.011071735993027687,
          -0.05639822408556938,
          -0.06877893209457397,
          0.005313235335052013,
          0.0019570610020309687,
          0.05440520867705345
        ],
        [
          -0.018150608986616135,
          0.10984118282794952,
          0.12078090757131577,
          -0.10056807845830917,
          0.07975467294454575,
          -0.12256625294685364,
          -0.04998526722192764,
          -0.026886606588959694,
          0.040720049291849136,
          0.04412968456745148,
          0.14808233082294464,
          0.10714362561702728,
          0.048075221478939056,
          0.06750170886516571,
          0.1092221587896347,
          -0.05287548527121544,
          0.13979414105415344,
          -0.014975902624428272,
          0.03089846484363079,
          0.08725190907716751,
          -0.1095065325498581,
          -0.07657928019762039,
          0.09941649436950684,
          0.06273794919252396,
          -0.02272883430123329,
          0.031181473284959793,
          -0.11673523485660553,
          -0.09963589906692505,
          0.10445394366979599,
          -0.028732771053910255,
          -0.03807176277041435,
          -0.048994917422533035,
          -0.04266318306326866,
          0.006195185240358114,
          -0.1590544879436493,
          0.07977879047393799,
          -0.04007979854941368,
          0.012840581126511097,
          0.1668756753206253,
          -0.026226405054330826,
          0.11537570506334305,
          0.053993552923202515,
          0.11651457101106644,
          0.15515655279159546,
          -0.1178518757224083,
          -0.0594988577067852,
          0.064203180372715,
          -0.03432786464691162,
          0.00807825569063425,
          0.009927511215209961,
          -0.11279387772083282,
          -0.057266902178525925,
          0.1317390352487564,
          -0.09983692318201065,
          -0.11708256602287292,
          0.05798806995153427,
          0.06159557029604912,
          0.14178477227687836,
          0.014581753872334957,
          0.040703579783439636,
          -0.04379630461335182,
          0.04227009043097496,
          -0.08006485551595688,
          0.09226799011230469
        ],
        [
          0.09359428286552429,
          -0.025552920997142792,
          0.15769915282726288,
          -0.09496278315782547,
          -0.18816377222537994,
          0.06799343228340149,
          0.06774412095546722,
          0.14074982702732086,
          -0.06943713128566742,
          0.09234225749969482,
          0.13784614205360413,
          -0.01927565224468708,
          0.15652494132518768,
          -0.12332944571971893,
          0.06051921844482422,
          -0.13609875738620758,
          -0.05134029686450958,
          0.10607917606830597,
          -0.0430447943508625,
          0.044026561081409454,
          0.02150532975792885,
          -0.0944460928440094,
          -0.11390778422355652,
          0.09179846197366714,
          0.07171967625617981,
          -0.0157000795006752,
          -0.039132121950387955,
          0.03375934064388275,
          -0.05570761486887932,
          0.15415775775909424,
          -0.12564636766910553,
          0.2015366107225418,
          -0.10545294731855392,
          0.09533796459436417,
          -0.10643593966960907,
          0.06932169198989868,
          0.0765736773610115,
          -0.04264094680547714,
          0.06132420897483826,
          0.07219500839710236,
          -0.06178764998912811,
          -0.08311165124177933,
          0.03281889483332634,
          0.0979575514793396,
          -0.036504846066236496,
          -0.03732244297862053,
          0.10694332420825958,
          -0.011145642027258873,
          -0.048934027552604675,
          0.09365762770175934,
          0.007938366383314133,
          0.20935502648353577,
          0.23502574861049652,
          -0.09080991894006729,
          -0.07954712957143784,
          0.0832008644938469,
          -0.0182022787630558,
          -0.04369261860847473,
          0.012856444343924522,
          -0.04118695482611656,
          -0.010499488562345505,
          -0.03485267981886864,
          0.058744728565216064,
          0.02723785676062107
        ],
        [
          0.011972453445196152,
          -0.09248402714729309,
          -0.0013786994386464357,
          -0.1365625113248825,
          -0.01526670716702938,
          0.08179550617933273,
          -0.01614406146109104,
          0.017755035310983658,
          0.055700965225696564,
          0.02214071899652481,
          0.0033725211396813393,
          -0.12274269759654999,
          0.00524255121126771,
          0.009371921420097351,
          0.12656615674495697,
          -0.02273625321686268,
          -0.08797384053468704,
          -0.11146795004606247,
          -0.003535858355462551,
          -0.038830146193504333,
          0.005105151329189539,
          -0.10039211064577103,
          0.027754828333854675,
          0.05416274070739746,
          0.0866534635424614,
          0.018265442922711372,
          0.0660167932510376,
          -0.006707116961479187,
          -0.12097782641649246,
          0.08594071865081787,
          0.006812897976487875,
          -0.10853888839483261,
          0.11580073088407516,
          0.11134424060583115,
          0.09721048921346664,
          -0.03910894691944122,
          -0.03540950268507004,
          -0.06968022882938385,
          -0.1290159374475479,
          0.037554387003183365,
          -0.11619024723768234,
          -0.1322113424539566,
          0.09125759452581406,
          0.09747835248708725,
          -0.00666658254340291,
          0.07408641278743744,
          -0.010551576502621174,
          0.08563379943370819,
          0.1785077005624771,
          -0.008002775721251965,
          0.06189662590622902,
          -0.029668577015399933,
          0.07606282830238342,
          -0.10439662635326385,
          0.09519945085048676,
          -0.07420113682746887,
          0.10310473293066025,
          0.018092479556798935,
          -0.04733693227171898,
          -0.04477563872933388,
          0.13201981782913208,
          0.12635178864002228,
          0.15187986195087433,
          0.15396054089069366
        ],
        [
          0.0657229796051979,
          -0.07733617722988129,
          -0.11669803410768509,
          0.06825894117355347,
          0.16176582872867584,
          -0.04167361184954643,
          -0.08578383177518845,
          0.0768442302942276,
          0.10448268800973892,
          0.11728543043136597,
          0.035341404378414154,
          0.000617179146502167,
          0.0979587584733963,
          0.05261458829045296,
          -0.10824565589427948,
          0.13703374564647675,
          -0.10499772429466248,
          -0.027088437229394913,
          -0.1644805371761322,
          0.19204942882061005,
          0.016693126410245895,
          0.07397162914276123,
          0.05716145038604736,
          -0.022172432392835617,
          0.07523980736732483,
          0.09105154871940613,
          -0.056741759181022644,
          -0.07248133420944214,
          -0.09199375659227371,
          0.11622285097837448,
          -0.053412068635225296,
          -0.07347863912582397,
          -0.07659849524497986,
          0.02525581233203411,
          -0.06027936562895775,
          -0.014000538736581802,
          -0.023006582632660866,
          0.01589721255004406,
          0.040374066680669785,
          0.040273476392030716,
          -0.08473257720470428,
          -0.10296560823917389,
          0.03409493714570999,
          0.029644198715686798,
          -0.05372634530067444,
          -0.04071233794093132,
          0.024393584579229355,
          -0.1047288253903389,
          0.12943987548351288,
          -0.010432993061840534,
          0.12912395596504211,
          -0.024998825043439865,
          -0.019123343750834465,
          0.1504313200712204,
          0.0512307770550251,
          -0.1534467488527298,
          -0.05724656209349632,
          -0.05683894082903862,
          -0.013224680908024311,
          0.1361728310585022,
          -0.006564605049788952,
          0.06408931314945221,
          0.10559000819921494,
          0.08010765165090561
        ],
        [
          -0.043419837951660156,
          0.06440809369087219,
          -0.09486173093318939,
          0.06219296157360077,
          -0.12090267986059189,
          -0.05706248804926872,
          -0.12181002646684647,
          0.003856333903968334,
          0.11942537873983383,
          -0.06461797654628754,
          -0.1214112639427185,
          -0.08378317207098007,
          -0.03371981903910637,
          0.09413762390613556,
          -0.03423695266246796,
          0.14488430321216583,
          -0.003924819175153971,
          0.13734936714172363,
          0.05325589329004288,
          0.06091216206550598,
          -0.004815699532628059,
          -0.026809167116880417,
          0.11741454899311066,
          0.04560043290257454,
          0.049754999577999115,
          0.2066061794757843,
          0.0962713286280632,
          0.08936935663223267,
          0.11575275659561157,
          0.09855665266513824,
          -0.18359878659248352,
          -0.0826333686709404,
          0.11258301883935928,
          -0.014252966269850731,
          0.03946553170681,
          -0.012708872556686401,
          -0.005883644334971905,
          0.057921551167964935,
          -0.08406481146812439,
          0.1507788747549057,
          -0.16612547636032104,
          -0.14377647638320923,
          0.0844150260090828,
          -0.002386750653386116,
          0.06425192952156067,
          0.029380938038229942,
          0.1155286580324173,
          -0.07956383377313614,
          0.16313427686691284,
          0.025608526542782784,
          0.06281908601522446,
          -0.0794820562005043,
          -0.17990635335445404,
          -0.06875529885292053,
          0.028439274057745934,
          0.0593169741332531,
          0.11468984931707382,
          -0.047706570476293564,
          0.044967181980609894,
          -0.07879780977964401,
          -0.10858333110809326,
          -0.009473252110183239,
          -0.031524740159511566,
          0.05264236405491829
        ],
        [
          0.14878596365451813,
          -0.002403016434982419,
          -0.014072688296437263,
          -0.008889983408153057,
          0.08016451448202133,
          -0.1110767051577568,
          -0.03647543862462044,
          0.08076579868793488,
          -0.10152526944875717,
          -0.05418774485588074,
          0.1290237158536911,
          0.04178416728973389,
          0.03806294873356819,
          0.02849186770617962,
          0.05756490305066109,
          0.05408499762415886,
          0.015129266306757927,
          -0.05536450818181038,
          0.025516144931316376,
          0.06794433295726776,
          0.09930683672428131,
          -0.13678482174873352,
          0.07286176085472107,
          -0.09642021358013153,
          -0.054711923003196716,
          -0.014941457659006119,
          -0.052698612213134766,
          -0.056881338357925415,
          0.11043247580528259,
          -0.05379438400268555,
          0.1167253777384758,
          0.11560652405023575,
          0.026337280869483948,
          0.027513589709997177,
          -0.08007720857858658,
          -0.04983824864029884,
          0.010191538371145725,
          -0.104754239320755,
          -0.09142446517944336,
          -0.06475915759801865,
          0.05232011899352074,
          -0.007532780058681965,
          0.047525063157081604,
          -0.10929516702890396,
          0.058423012495040894,
          0.011408085003495216,
          -0.030544979497790337,
          0.1220802292227745,
          -0.011058500967919827,
          0.1313367635011673,
          -0.05800786241889,
          -0.1029379591345787,
          -0.07588125765323639,
          0.012021927163004875,
          -0.20472361147403717,
          -0.08407196402549744,
          0.1091299057006836,
          -0.017794901505112648,
          0.12531572580337524,
          0.1522606462240219,
          0.018362274393439293,
          -0.09774147719144821,
          -0.11057277023792267,
          0.051354359835386276
        ],
        [
          0.06263871490955353,
          -0.0698637068271637,
          0.06740812212228775,
          0.10301561653614044,
          0.0038067211862653494,
          -0.04836229607462883,
          0.1312870979309082,
          0.032079365104436874,
          0.08794672042131424,
          0.021096106618642807,
          0.10948111116886139,
          -0.05767497420310974,
          0.10000884532928467,
          -0.042695194482803345,
          -0.10528077185153961,
          0.06331460922956467,
          0.06410503387451172,
          0.056942857801914215,
          -0.03711869195103645,
          -0.1093134731054306,
          -0.032120481133461,
          0.00529515789821744,
          -0.056328341364860535,
          0.0034871306270360947,
          -0.1324717402458191,
          0.06489638239145279,
          -0.0017984472215175629,
          -0.06607992947101593,
          0.05870036408305168,
          -0.048028454184532166,
          0.08902278542518616,
          -0.07720280438661575,
          0.1453227549791336,
          -0.0867658331990242,
          0.11680183559656143,
          -0.125528022646904,
          0.13989979028701782,
          0.13727925717830658,
